digraph Tree {
node [shape=box, style="filled, rounded", color="black", fontname="helvetica"] ;
edge [fontname="helvetica"] ;
0 [label="age <= 25.5\ngini = 0.833\nsamples = 18\nvalue = [3, 3, 3, 3, 3, 3]\nclass = Instagram", fillcolor="#ffffff"] ;
1 [label="gender <= 0.5\ngini = 0.5\nsamples = 6\nvalue = [3, 0, 0, 3, 0, 0]\nclass = Instagram", fillcolor="#ffffff"] ;
0 -> 1 [labeldistance=2.5, labelangle=45, headlabel="True"] ;
2 [label="gini = 0.0\nsamples = 3\nvalue = [3, 0, 0, 0, 0, 0]\nclass = Instagram", fillcolor="#e58139"] ;
1 -> 2 ;
3 [label="gini = 0.0\nsamples = 3\nvalue = [0, 0, 0, 3, 0, 0]\nclass = tiktok", fillcolor="#399de5"] ;
1 -> 3 ;
4 [label="gender <= 0.5\ngini = 0.75\nsamples = 12\nvalue = [0, 3, 3, 0, 3, 3]\nclass = Twitter", fillcolor="#ffffff"] ;
0 -> 4 [labeldistance=2.5, labelangle=-45, headlabel="False"] ;
5 [label="age <= 30.5\ngini = 0.5\nsamples = 6\nvalue = [0, 0, 0, 0, 3, 3]\nclass = whatsapp", fillcolor="#ffffff"] ;
4 -> 5 ;
6 [label="gini = 0.0\nsamples = 3\nvalue = [0, 0, 0, 0, 3, 0]\nclass = whatsapp", fillcolor="#8139e5"] ;
5 -> 6 ;
7 [label="gini = 0.0\nsamples = 3\nvalue = [0, 0, 0, 0, 0, 3]\nclass = youtube", fillcolor="#e5399d"] ;
5 -> 7 ;
8 [label="age <= 29.5\ngini = 0.5\nsamples = 6\nvalue = [0, 3, 3, 0, 0, 0]\nclass = Twitter", fillcolor="#ffffff"] ;
4 -> 8 ;
9 [label="gini = 0.0\nsamples = 2\nvalue = [0, 0, 2, 0, 0, 0]\nclass = facebook", fillcolor="#39e581"] ;
8 -> 9 ;
10 [label="age <= 30.5\ngini = 0.375\nsamples = 4\nvalue = [0, 3, 1, 0, 0, 0]\nclass = Twitter", fillcolor="#beee7b"] ;
8 -> 10 ;
11 [label="gini = 0.5\nsamples = 2\nvalue = [0, 1, 1, 0, 0, 0]\nclass = Twitter", fillcolor="#ffffff"] ;
10 -> 11 ;
12 [label="gini = 0.0\nsamples = 2\nvalue = [0, 2, 0, 0, 0, 0]\nclass = Twitter", fillcolor="#9de539"] ;
10 -> 12 ;
}